{
  "pairs": [
    {
      "q": "hej med dig",
      "a": "bare sig hej igen"
    },
    {
      "q": "hej med dig",
      "a": "mit navn er Ronni"
    },
    {
      "q": "hvad er mit navn",
      "a": "Ronni"
    }
  ],
  "vocab": [
    "hej",
    "med",
    "dig",
    "hvad",
    "er",
    "mit",
    "navn"
  ],
  "labels": [
    "bare sig hej igen",
    "mit navn er Ronni",
    "Ronni"
  ],
  "W1": [
    [
      -0.007312715117751976,
      0.053748312048089567,
      0.0037208172132716277,
      -0.004898619485211566,
      -9.129825816118098e-05,
      -0.0010101787042252374,
      0.003031859454455259,
      0.0057744670227102635,
      -0.008122808264515302,
      -0.1716940062658616,
      0.037688969014415916,
      -0.0013446586418989325,
      0.0052456016491588394,
      -0.009957878932977787,
      -0.060425441452073,
      -0.01329992842442088,
      -0.1408188880810455,
      0.08971218129287939,
      -0.013180475305213022,
      -0.11975296861765007,
      -0.009491082780130784,
      0.1684048197113168,
      0.007947700388709813,
      -0.0023759152462357516,
      -0.005668012057387733,
      -0.002437461025980218,
      -0.2212498049543261,
      -0.005566166674539299,
      0.016859257698346848,
      0.043371926711662845,
      -0.005338310994848548,
      0.053840698789467276,
      -0.13244536308647625,
      -0.118655299991807,
      -0.1889580747516684,
      -0.009570205894681823,
      0.006751559513251458,
      0.057564385036331545,
      -0.09562514351613598,
      -0.006281874682105646,
      -0.07840956421146685,
      0.0413196164539426,
      -0.007582200803883872,
      -0.0040578422167282385,
      0.00327103365678363,
      0.00492261746888641,
      0.007263469742850803,
      -0.002652572122076919,
      -0.02078039334815646,
      0.0034061113282814206,
      -0.003932629781341648,
      -0.17536405111188344,
      0.06933738875718223,
      0.16037986816904562,
      -0.0021929530374145386,
      0.08001355090837511,
      -0.009309483396973168,
      -0.005145200529138647,
      0.07941737836684534,
      -0.0017137200139845145,
      -0.08211960164154469,
      0.0009759752277630596,
      0.1289110298274367,
      -0.17945019623456987
    ],
    [
      -0.0025059395899671945,
      0.045578869910236186,
      -0.001386145401261016,
      0.005568852300002916,
      0.00041876835226290377,
      -0.002134898100715479,
      -0.0002061295907548355,
      -0.009408500720661859,
      -0.009130254192869452,
      -0.15819331402422504,
      0.040637421282212,
      0.0018636746076011513,
      -0.0021280062724417202,
      -0.006593016062886374,
      -0.05928841416449937,
      -0.008089196320465848,
      -0.12998366970983855,
      0.0815991163507965,
      -0.014003228879031701,
      -0.11572124571706086,
      0.00027543326375274014,
      0.17662591802081226,
      0.0007206132891636616,
      -0.0008173653617866328,
      -0.004614410451171576,
      8.013365169041357e-05,
      -0.20268829507661895,
      -0.009885817410992141,
      0.023774610477643197,
      0.0498654001225354,
      0.007723591616520165,
      0.06403343619531146,
      -0.12063818581578042,
      -0.11747380363610163,
      -0.18352654974791052,
      -0.0014781864062369966,
      -0.008877534049585191,
      0.06383550168681568,
      -0.09707104409725728,
      -0.0060032115964571385,
      -0.08816602310641088,
      0.03381918812259149,
      -0.002864200709100886,
      -0.003790187543567723,
      -0.00038907858012485197,
      0.0031685711309309204,
      0.0007837073025161232,
      -0.0019317761193107343,
      -0.03682160753196614,
      -0.005407899374459521,
      -0.006455774821228347,
      -0.17542644581918582,
      0.06890798595761158,
      0.15942469861202788,
      0.0036433218037033787,
      0.0845622531599379,
      -0.004894119198253881,
      0.0068348966454819205,
      0.07693156392453343,
      -0.008335317243922042,
      -0.08524593707081451,
      -0.009708800501503754,
      0.12996195009116804,
      -0.18794872833154797
    ],
    [
      -0.007810227454112813,
      0.049295678992394426,
      -0.004666217884330755,
      -0.008609692429383054,
      -0.0068074895061230505,
      0.0005476079809602564,
      -0.006637101075551435,
      -0.004541711263626398,
      0.004231798543705458,
      -0.16316692319538847,
      0.027413702263765032,
      -0.0005245797165944222,
      -0.009527308447360258,
      -0.0022688579047706026,
      -0.06091481174898751,
      -0.023969942976210273,
      -0.1432188986575463,
      0.08880313738892134,
      -0.02100670483886917,
      -0.11618294842728574,
      0.0021129728006803305,
      0.1739173636230046,
      -0.010418920696674652,
      -0.009642709583444094,
      -0.00707076519201308,
      0.003496916917601232,
      -0.21862606885322938,
      0.0040921125570400506,
      0.021665021730874354,
      0.04434972515560391,
      -0.005588005039546469,
      0.06873525831500518,
      -0.120864766679107,
      -0.11751537896757382,
      -0.19028979143854471,
      0.002970128361985127,
      -0.002102039802834008,
      0.057952217839044015,
      -0.10204611458788237,
      0.0026189572254269387,
      -0.09708473013085832,
      0.03009280487049707,
      0.009358066203017783,
      0.0067989389607723645,
      -0.0050309220882168194,
      0.007869070202112001,
      -0.005258069446075709,
      0.0076910565214004245,
      -0.022504264840300575,
      -0.00167655474469949,
      -0.004952837954403293,
      -0.18694605798548128,
      0.06926216670472202,
      0.14421425041245098,
      0.004089652763249398,
      0.08747752825234045,
      0.0014056114049036039,
      -0.0065696580964456274,
      0.08082491470445916,
      0.009475504723193832,
      -0.07149928682652426,
      0.00017747492155780975,
      0.12240959127299633,
      -0.186001295153364
    ],
    [
      -0.0058847648541059065,
      -0.02343657599635195,
      -0.0013409975779936744,
      -0.0061176271002962085,
      -0.007911515543169694,
      0.00299097291842626,
      -0.004078546538336969,
      -4.0015552639682814e-06,
      -0.004275538368726024,
      0.289339951183156,
      -0.010532284232821768,
      -0.009638140327190566,
      -0.005982939771184812,
      -0.0034451858980746497,
      0.11134947033810114,
      0.03386998591926657,
      0.23179425973336462,
      -0.05578364973058271,
      0.03515463890189276,
      0.2016202155304761,
      0.008212462450300238,
      -0.10329531408118683,
      0.0076478640493292714,
      0.0017495437711438123,
      -0.00031002554775011904,
      0.009710164596515955,
      0.3609927037602846,
      0.004509303724825449,
      -0.02013764058748812,
      -0.03170350509834292,
      0.008219755670161357,
      -0.041679017439731604,
      0.2219864441578061,
      0.204179580934394,
      0.3267672874468676,
      -0.0030172459073641612,
      -0.003999644683966309,
      -0.03778420515585654,
      0.17701917262700667,
      0.0020796505778342246,
      0.1609497884587877,
      -0.014541360093363551,
      -0.0072930804520909415,
      0.0010234094813843298,
      -0.007914500039707728,
      -0.00978422477597358,
      -0.00853613162335303,
      0.007263923627800709,
      0.051698289726721317,
      0.004929882841344504,
      -0.0031820507176683324,
      0.3095897041261979,
      -0.03421679778823157,
      -0.09372589383751438,
      0.0014156305119804658,
      -0.05353625518518239,
      -0.008365134752952126,
      -0.004665527140365273,
      -0.03940640126224399,
      0.001288936664803948,
      0.142768733727794,
      -0.0008446148191750936,
      -0.08024816301587413,
      0.32359519001978854
    ],
    [
      0.006555363132914593,
      -0.03667200139155591,
      0.0034082327804786194,
      -0.008166337547669645,
      -0.007697950031441454,
      0.00737302376044583,
      -0.009199529262196707,
      -0.0052073327026498145,
      0.008980718505874705,
      0.2803277927832902,
      -0.02621468601367193,
      -0.006652331250773365,
      -0.005171594298043139,
      0.004880128330740168,
      0.09366515889926681,
      0.03643126677026572,
      0.23257789218723046,
      -0.04063896492763477,
      0.0398499920704317,
      0.19074666582636776,
      -0.005363084266749773,
      -0.10063210845755788,
      -0.00799741712099096,
      0.0010483441178590098,
      -0.009207595731725911,
      -0.009789876969626554,
      0.37595156759387305,
      -0.0040890027990216436,
      -0.009899832332048978,
      -0.02610049724162871,
      -0.0037343827786214413,
      -0.04467908553860717,
      0.2250719608467961,
      0.2115716698685113,
      0.32934057362267993,
      -0.008152159692939304,
      -0.0065014839832841015,
      -0.03125237330384812,
      0.17926983387307016,
      0.0008582639496943112,
      0.15562743547629815,
      -0.01904997361019582,
      -0.0048182801629271,
      0.0008320452582593108,
      -0.0038535776437497306,
      -0.0056393568262099476,
      -0.008372624692324245,
      -0.004443709048237222,
      0.05560349509660483,
      -0.0026821917773718574,
      0.003040210690253411,
      0.31015530508041406,
      -0.031040179375906654,
      -0.09347711539150368,
      -0.003864314102969728,
      -0.051465708346415104,
      -0.003665297062287958,
      0.006942695316524301,
      -0.03935175890891809,
      -0.003943813406549674,
      0.13095405779863975,
      0.0008845082836436835,
      -0.07421210961168642,
      0.31977414754860206
    ],
    [
      -0.005098039922095028,
      -0.03651215571236419,
      -0.0051248140034416845,
      -0.008553449322571783,
      0.0010240950983101205,
      -0.008909850296356703,
      -0.00849740415490954,
      0.0027076418712611437,
      -0.004966020457858039,
      0.2877512161923307,
      -0.018660628770514633,
      0.007252979555594188,
      -0.006916408076743119,
      2.8591718933865807e-05,
      0.1075081458544611,
      0.019758118129957376,
      0.24399690575580466,
      -0.056579403490766914,
      0.037189717167136205,
      0.20456411155027826,
      0.005999715907297981,
      -0.10377663032114312,
      -0.007862445308368804,
      -0.0017054948508243505,
      0.008387138784213759,
      -0.004130210112586645,
      0.3741750710167796,
      -0.007166387059466102,
      -0.0036216117079631224,
      -0.03446218901628393,
      -0.0036786264447823424,
      -0.027876615665277833,
      0.22288124612315674,
      0.21031847967168496,
      0.32675901397768525,
      0.004544291812613301,
      0.002986554201999222,
      -0.040045413591192756,
      0.16832353617479334,
      -0.006842061124956789,
      0.15616012835472012,
      -0.018931087393991963,
      -0.004948271844122332,
      -0.008711716133046775,
      0.009267717666431514,
      0.005598071819536138,
      0.0009853986278503845,
      0.0007681095201688818,
      0.052961814078844385,
      -0.002574043035593411,
      -0.0020857911055846513,
      0.3040593663729184,
      -0.04469548797145123,
      -0.10079851635778005,
      0.0029287768800019378,
      -0.04967685899418957,
      0.0014120726315544508,
      -0.00875356738392958,
      -0.050122894945624184,
      -0.007234317720898042,
      0.12676996999133436,
      -0.00481774062168344,
      -0.06921313071832494,
      0.3158108430098795
    ],
    [
      -0.001978356961581973,
      -0.024670737821430457,
      -0.005329406934083001,
      -0.009850456539157315,
      0.0005740347977342641,
      -0.0003101852560028598,
      0.0029767918468170665,
      -0.001233660887165684,
      0.0029478111469180626,
      0.28653596001790627,
      -0.023758356122276916,
      -9.855498567978183e-05,
      -0.0004234622483641326,
      -0.00549875829922466,
      0.09985339863788743,
      0.029424127094438833,
      0.2431511368664629,
      -0.04169011398143453,
      0.027170044776733463,
      0.1977944976402486,
      -0.009467340120344232,
      -0.10874128261244528,
      0.00023383418400413136,
      0.005555821707000404,
      -0.006810645384843379,
      0.005320557175946244,
      0.3739600864503747,
      -0.003763959363293954,
      -0.007980105903761513,
      -0.018117565484499165,
      -0.0025677133850487022,
      -0.03191272808140391,
      0.22153248283498367,
      0.20406696042856706,
      0.3270701863110106,
      0.007552681526849833,
      0.008396226955291112,
      -0.03218385701972832,
      0.16319629405939812,
      -0.004988091822452414,
      0.14621601308547558,
      -0.020896315195746917,
      0.005155002293328734,
      -0.008957335577156271,
      0.0036327291121493644,
      0.003776084519438423,
      -0.003040369840863846,
      0.00024167256633610568,
      0.039231923792840295,
      0.0029576864217022054,
      -0.009185826253269023,
      0.3169104046379803,
      -0.03369599515193325,
      -0.08871771637463931,
      -0.0046494751070577656,
      -0.039753278838309127,
      0.00918877675754143,
      -0.007217476819570581,
      -0.041706618813035785,
      0.006838617170870476,
      0.13746173681190418,
      0.004008155328334611,
      -0.07689064369573788,
      0.3263410528010805
    ]
  ],
  "b1": [
    0.0,
    0.027220077033002957,
    -0.0026927763772290414,
    0.0,
    0.0,
    -0.0006563552942947842,
    0.0,
    0.0,
    -0.0015649029324918998,
    0.282770822545487,
    0.01659626557886549,
    0.0,
    0.0,
    0.0,
    0.10044886038713198,
    0.025721433202737863,
    0.2355151770047997,
    0.03987293538428053,
    0.02659596707557326,
    0.19857500223117555,
    -0.0008625739751446145,
    0.08990651308656283,
    -0.0014467523640940025,
    -0.003985319743858671,
    0.0,
    -0.0015238453753030185,
    0.3656983924643896,
    0.0,
    0.00769023739134931,
    0.02507267303222177,
    0.0,
    0.030701119620604213,
    0.21394785354192886,
    0.20023317748620015,
    0.31988647957950117,
    -0.0007588117909542859,
    -0.0016106987680121405,
    0.030531782678407404,
    0.1687847239349311,
    0.0,
    0.15085572532064748,
    0.01452543715445202,
    0.0,
    -0.0012327801023282344,
    -0.0020068484535532235,
    7.63645614615962e-05,
    -0.0025380467825799357,
    -0.0020149840528236123,
    0.044446452642913276,
    -0.0032804731760755356,
    0.0,
    0.3077986394111802,
    0.027136679304442326,
    0.0832200769880811,
    -0.003981342993453393,
    0.03948333353070629,
    0.0,
    0.0,
    0.032809021353580346,
    0.0,
    0.13762681291405812,
    0.0,
    0.06466327832298785,
    0.31884856971806524
  ],
  "W2": [
    [
      0.009424150563925626,
      -0.0023529337435965105,
      0.006054230616007137
    ],
    [
      0.12880815111869265,
      0.13559782185691985,
      -0.275943111237191
    ],
    [
      -0.007248953378624403,
      0.008065475725260587,
      0.009076255948997634
    ],
    [
      -0.007616265351882503,
      0.00201358162374117,
      -0.0018355180458283372
    ],
    [
      -0.007638199379964217,
      -0.00409048970376366,
      -0.0050356725783870385
    ],
    [
      0.004882545692533519,
      -0.010031185808970446,
      -0.005982870462025347
    ],
    [
      -0.0012245385976012613,
      -0.009579306538282576,
      0.002550531770749609
    ],
    [
      0.002112550771570083,
      0.006706647017657277,
      -0.005867883686296307
    ],
    [
      -0.004896293531277994,
      0.00024013760539878755,
      -0.0033369092435754076
    ],
    [
      -0.27621160888232826,
      -0.28615041619917503,
      0.5627649743902815
    ],
    [
      0.09827463635543117,
      0.10294659976929987,
      -0.17975400716309795
    ],
    [
      0.0009075400765173769,
      -0.0001838144034197131,
      0.007113953995972873
    ],
    [
      0.005381347717187586,
      0.0014108925877407042,
      -0.0023348723046747242
    ],
    [
      -0.004319051085328816,
      -0.00783721582531664,
      0.006150981787465608
    ],
    [
      -0.10770442141806491,
      -0.09617593499494118,
      0.20209283351274318
    ],
    [
      -0.018819351123341762,
      -0.021468519362191234,
      0.0642784859499244
    ],
    [
      -0.2380462190636168,
      -0.23471141803212178,
      0.46694851257448144
    ],
    [
      0.2208244875418578,
      0.23230421539530133,
      -0.459706648754713
    ],
    [
      -0.03219928893121595,
      -0.03830708371250551,
      0.05993743307197669
    ],
    [
      -0.20060507175314335,
      -0.1974492577004463,
      0.3911294110447296
    ],
    [
      0.005612638388778739,
      0.0036180800132654045,
      -5.4731841514072944e-05
    ],
    [
      0.4552986563197526,
      0.4788027176278836,
      -0.9395185638650387
    ],
    [
      -0.009849812979150411,
      -0.004483910899086056,
      0.0019269460422492385
    ],
    [
      0.006060383751833428,
      0.0049821635836918435,
      0.0033983404830831153
    ],
    [
      0.00974036290098854,
      -0.0007683805226039331,
      0.006691869723336765
    ],
    [
      -0.0014570583466041107,
      0.004710799946414952,
      0.009570011405036848
    ],
    [
      -0.3711107839015898,
      -0.36502849070969234,
      0.7280529371374602
    ],
    [
      0.0006191236074806916,
      -0.0028115593602969203,
      -0.009929615158058975
    ],
    [
      0.0493669823939898,
      0.052003882294816894,
      -0.10696518097977105
    ],
    [
      0.12716083739627887,
      0.13345858364900945,
      -0.2470293384750315
    ],
    [
      0.007958183432742207,
      0.0049754692715027506,
      -0.000145958961899062
    ],
    [
      0.16601689130493566,
      0.174365856873398,
      -0.3296853646694243
    ],
    [
      -0.21025096604557497,
      -0.22192869302913062,
      0.43549838637400007
    ],
    [
      -0.19855210635992768,
      -0.19598627270912825,
      0.41160486218616477
    ],
    [
      -0.3182696632447105,
      -0.3122397671662682,
      0.6490913047856721
    ],
    [
      0.0020007666923820278,
      -0.003121842735367249,
      -0.004489009128314163
    ],
    [
      0.003951972163125178,
      0.007271916951772748,
      0.0013002880787200725
    ],
    [
      0.1571241100737312,
      0.1652434674948759,
      -0.3229758109472793
    ],
    [
      -0.1705100175041504,
      -0.17355824174465648,
      0.3345236914670866
    ],
    [
      0.0048949533090943435,
      -0.0015480437770852018,
      -0.0028964537282289717
    ],
    [
      -0.14879746377492178,
      -0.15845107939345,
      0.3009235136338033
    ],
    [
      0.09194337140439736,
      0.09646477105778671,
      -0.17763817414761798
    ],
    [
      0.0037781647258692355,
      0.002099878386319172,
      -0.005822212170348646
    ],
    [
      -0.005741317825760836,
      0.007668249452843551,
      -0.00467087501439246
    ],
    [
      -0.008374612910283134,
      0.006549707799874853,
      0.0004001078240646657
    ],
    [
      0.011671567948138152,
      0.012238704235142266,
      -0.021581216654143476
    ],
    [
      -0.005633087079894612,
      0.0026549050469303623,
      0.003679334123443531
    ],
    [
      0.005061568913585331,
      -0.0016956232689250173,
      0.0005226625207138973
    ],
    [
      -0.05393080317829631,
      -0.04851668023745385,
      0.09175791389418872
    ],
    [
      0.0052899383454752275,
      0.006840281673130726,
      -0.0024076390215597666
    ],
    [
      -0.0055536287637401325,
      0.009275768341116642,
      0.00413380626503042
    ],
    [
      -0.3009567842920324,
      -0.30682784364006427,
      0.6132590361087936
    ],
    [
      0.17157815150920913,
      0.18043785125838124,
      -0.3546010660069681
    ],
    [
      0.4136318081026883,
      0.4348362025550853,
      -0.8437298943055059
    ],
    [
      0.0031630114092290975,
      -0.005582867950613919,
      0.007711173822887792
    ],
    [
      0.22101089330287882,
      0.23218957324978295,
      -0.4415010784267432
    ],
    [
      0.002125198087912166,
      -0.00476031937310226,
      0.0005318464580976645
    ],
    [
      -0.007227605167260285,
      -0.007238040135224133,
      0.004314995324713196
    ],
    [
      0.1982166290725458,
      0.20847222066713667,
      -0.4096296560650057
    ],
    [
      0.00436316284629541,
      0.004369538527935546,
      -0.0038900823789497887
    ],
    [
      -0.14086624032649483,
      -0.13328924785171506,
      0.26407058396609207
    ],
    [
      -0.008000515706044313,
      -0.006264774792644283,
      -0.008893138943690392
    ],
    [
      0.33555066913812664,
      0.352755081992715,
      -0.6842468014131109
    ],
    [
      -0.32230002256627965,
      -0.3094363092103437,
      0.6328072835583373
    ]
  ],
  "b2": [
    0.3684670146735339,
    0.41675345153819343,
    -0.7852204662117271
  ],
  "trained": true
}